/*
 * Copyright (c) 2025 EdgeImpulse Inc.
 *
 * Generated by Edge Impulse and licensed under the applicable Edge Impulse
 * Terms of Service. Community and Professional Terms of Service
 * (https://edgeimpulse.com/legal/terms-of-service) or Enterprise Terms of
 * Service (https://edgeimpulse.com/legal/enterprise-terms-of-service),
 * according to your product plan subscription (the “License”).
 *
 * This software, documentation and other associated files (collectively referred
 * to as the “Software”) is a single SDK variation generated by the Edge Impulse
 * platform and requires an active paid Edge Impulse subscription to use this
 * Software for any purpose.
 *
 * You may NOT use this Software unless you have an active Edge Impulse subscription
 * that meets the eligibility requirements for the applicable License, subject to
 * your full and continued compliance with the terms and conditions of the License,
 * including without limitation any usage restrictions under the applicable License.
 *
 * If you do not have an active Edge Impulse product plan subscription, or if use
 * of this Software exceeds the usage limitations of your Edge Impulse product plan
 * subscription, you are not permitted to use this Software and must immediately
 * delete and erase all copies of this Software within your control or possession.
 * Edge Impulse reserves all rights and remedies available to enforce its rights.
 *
 * Unless required by applicable law or agreed to in writing, the Software is
 * distributed on an "AS IS" BASIS, WITHOUT WARRANTIES OR CONDITIONS OF ANY KIND,
 * either express or implied. See the License for the specific language governing
 * permissions, disclaimers and limitations under the License.
 */
// Generated on: 03.12.2025 06:31:00

#include <stdio.h>
#include <stdlib.h>
#include "edge-impulse-sdk/tensorflow/lite/c/builtin_op_data.h"
#include "edge-impulse-sdk/tensorflow/lite/c/common.h"
#include "edge-impulse-sdk/tensorflow/lite/micro/micro_mutable_op_resolver.h"
#include "edge-impulse-sdk/porting/ei_classifier_porting.h"

#if EI_CLASSIFIER_PRINT_STATE
#if defined(__cplusplus) && EI_C_LINKAGE == 1
extern "C" {
    extern void ei_printf(const char *format, ...);
}
#else
extern void ei_printf(const char *format, ...);
#endif
#endif

#define STRINGIZE(x) #x
#define STRINGIZE_VALUE_OF(x) STRINGIZE(x)

#if defined (__GNUC__)  /* GNU compiler */
#define ALIGN(X) __attribute__((aligned(X)))
#define DEFINE_SECTION(x) __attribute__((section(x)))
#elif defined (_MSC_VER)
#define ALIGN(X) __declspec(align(X))
#elif defined (__TASKING__) /* TASKING Compiler */
#define ALIGN(X) __align(X)
#define DEFINE_SECTION(x) __attribute__((section(x)))
#elif defined (__ARMCC_VERSION) /* Arm Compiler */
#define ALIGN(X) __ALIGNED(x)
#define DEFINE_SECTION(x) __attribute__((section(x)))
#elif defined (__ICCARM__) /* IAR Compiler */
#define ALIGN(x) __attribute__((aligned(x)))
#define DEFINE_SECTION(x) __attribute__((section(x)))
#elif defined (__clang__) /* LLVM/Clang Compiler */
#define ALIGN(X) __ALIGNED(x)
#define DEFINE_SECTION(x) __attribute__((section(x)))
#endif

#if defined(EI_MODEL_SECTION) && (defined(__GNUC__) || defined(__clang__))
#define MODEL_SECTION(X) __attribute__((section(STRINGIZE_VALUE_OF(X))))
#else
#define MODEL_SECTION(X)
#endif

#ifndef EI_MAX_SCRATCH_BUFFER_COUNT
#ifndef CONFIG_IDF_TARGET_ESP32S3
#define EI_MAX_SCRATCH_BUFFER_COUNT 4
#else
#define EI_MAX_SCRATCH_BUFFER_COUNT 4
#endif // CONFIG_IDF_TARGET_ESP32S3
#endif // EI_MAX_SCRATCH_BUFFER_COUNT

#ifndef EI_MAX_OVERFLOW_BUFFER_COUNT
#define EI_MAX_OVERFLOW_BUFFER_COUNT 10
#endif // EI_MAX_OVERFLOW_BUFFER_COUNT

using namespace tflite;
using namespace tflite::ops;
using namespace tflite::ops::micro;

namespace {

#if defined(EI_CLASSIFIER_ALLOCATION_STATIC_HIMAX) || defined(EI_CLASSIFIER_ALLOCATION_STATIC_HIMAX_GNU)
constexpr int kTensorArenaSize = 1488;
#else
constexpr int kTensorArenaSize = 464;
#endif

#if defined(EI_CLASSIFIER_ALLOCATION_STATIC)
#if defined (EI_TENSOR_ARENA_LOCATION)
uint8_t tensor_arena[kTensorArenaSize] ALIGN(16) DEFINE_SECTION(STRINGIZE_VALUE_OF(EI_TENSOR_ARENA_LOCATION));
#else
uint8_t tensor_arena[kTensorArenaSize] ALIGN(16);
#endif
#elif defined(EI_CLASSIFIER_ALLOCATION_STATIC_HIMAX)
#pragma Bss(".tensor_arena")
uint8_t tensor_arena[kTensorArenaSize] ALIGN(16);
#pragma Bss()
#elif defined(EI_CLASSIFIER_ALLOCATION_STATIC_HIMAX_GNU)
uint8_t tensor_arena[kTensorArenaSize] ALIGN(16) __attribute__((section(".tensor_arena")));
#else
#define EI_CLASSIFIER_ALLOCATION_HEAP 1
uint8_t* tensor_arena = NULL;
#endif

static uint8_t* tensor_boundary;
static uint8_t* current_location;

template <int SZ, class T> struct TfArray {
  int sz; T elem[SZ];
};

enum used_operators_e {
  OP_FULLY_CONNECTED, OP_SOFTMAX,  OP_LAST
};

struct TensorInfo_t { // subset of TfLiteTensor used for initialization from constant memory
  TfLiteAllocationType allocation_type;
  TfLiteType type;
  void* data;
  TfLiteIntArray* dims;
  size_t bytes;
  TfLiteQuantization quantization;
};

typedef struct {
  TfLiteTensor tensor;
  int16_t index;
} TfLiteTensorWithIndex;

typedef struct {
  TfLiteEvalTensor tensor;
  int16_t index;
} TfLiteEvalTensorWithIndex;

TfLiteContext ctx{};
static const int MAX_TFL_TENSOR_COUNT = 4;
static TfLiteTensorWithIndex tflTensors[MAX_TFL_TENSOR_COUNT];
static const int MAX_TFL_EVAL_COUNT = 4;
static TfLiteEvalTensorWithIndex tflEvalTensors[MAX_TFL_EVAL_COUNT];
TfLiteRegistration registrations[OP_LAST];

namespace g0 {
const TfArray<2, int> tensor_dimension0 = { 2, { 1,126 } };
const TfArray<1, float> quant0_scale = { 1, { 0.081079132854938507, } };
const TfArray<1, int> quant0_zero = { 1, { -79 } };
const TfLiteAffineQuantization quant0 = { (TfLiteFloatArray*)&quant0_scale, (TfLiteIntArray*)&quant0_zero, 0 };
const MODEL_SECTION(EI_MODEL_SECTION) ALIGN(8) int32_t tensor_data1[3] = { -141, 173, -126, };
const TfArray<1, int> tensor_dimension1 = { 1, { 3 } };
const TfArray<1, float> quant1_scale = { 1, { 0.00010594398918328807, } };
const TfArray<1, int> quant1_zero = { 1, { 0 } };
const TfLiteAffineQuantization quant1 = { (TfLiteFloatArray*)&quant1_scale, (TfLiteIntArray*)&quant1_zero, 0 };
const MODEL_SECTION(EI_MODEL_SECTION) ALIGN(16) int8_t tensor_data2[3*10] = { 
  68, 5, 99, -97, -40, 63, 83, -100, -127, 85, 
  74, 74, -27, -73, -115, 0, 41, -91, 16, -22, 
  -105, -22, 125, -2, -102, -97, -105, -54, 108, 30, 
};
const TfArray<2, int> tensor_dimension2 = { 2, { 3,10 } };
const TfArray<1, float> quant2_scale = { 1, { 0.0056039700284600258, } };
const TfLiteAffineQuantization quant2 = { (TfLiteFloatArray*)&quant2_scale, (TfLiteIntArray*)&g0::quant1_zero, 0 };
const MODEL_SECTION(EI_MODEL_SECTION) ALIGN(16) int32_t tensor_data3[10] = { 164, 191, 59, -106, -9, 370, 183, -130, -93, -93, };
const TfArray<1, int> tensor_dimension3 = { 1, { 10 } };
const TfArray<1, float> quant3_scale = { 1, { 9.8624303063843399e-05, } };
const TfLiteAffineQuantization quant3 = { (TfLiteFloatArray*)&quant3_scale, (TfLiteIntArray*)&g0::quant1_zero, 0 };
const MODEL_SECTION(EI_MODEL_SECTION) ALIGN(16) int8_t tensor_data4[10*20] = { 
  48, -69, -63, 14, 98, 15, 127, -110, 0, -55, 30, 22, 60, 111, 56, -85, 2, -24, -74, 28, 
  -47, -124, 73, 69, 60, -36, -58, -100, -97, 15, -43, -45, 65, 26, 72, 86, -44, 33, -46, -32, 
  -18, -98, 0, 106, -41, -56, -28, 17, -40, -9, 44, 53, -25, -84, -12, -72, 81, -93, -87, -75, 
  49, 7, 90, 6, -67, 75, -76, -39, -35, 68, 92, 44, -71, -92, -9, -42, -29, -50, 110, 80, 
  -50, 71, -101, -45, -96, 63, -21, 21, -83, 49, 89, 52, -27, 43, 25, -98, -54, 103, 68, 73, 
  -76, 79, -65, 58, -39, -111, 7, 85, -109, -58, 87, 67, -41, 72, -13, -59, -29, 70, -78, 18, 
  98, 52, -55, -76, 81, 79, 23, -37, -21, -5, 70, 43, -68, -39, 13, -14, 60, -17, -15, -29, 
  -21, 83, 44, 60, -9, 87, 73, -100, 107, -20, -65, 108, 69, -24, -100, 55, 85, 4, 19, 77, 
  60, 33, 58, 44, 95, 40, -116, -15, -34, 27, 88, 25, 4, -96, -37, 100, -80, 67, -39, -40, 
  34, -57, -23, -6, 68, 93, -5, 6, 83, -102, -63, 42, -81, -59, 55, -23, -25, 91, 0, 88, 
};
const TfArray<2, int> tensor_dimension4 = { 2, { 10,20 } };
const TfArray<1, float> quant4_scale = { 1, { 0.0039016001392155886, } };
const TfLiteAffineQuantization quant4 = { (TfLiteFloatArray*)&quant4_scale, (TfLiteIntArray*)&g0::quant1_zero, 0 };
const MODEL_SECTION(EI_MODEL_SECTION) ALIGN(16) int32_t tensor_data5[20] = { 201, 3, -1, 69, 110, -96, 238, -29, -86, 125, 155, -1, 62, 92, 85, -93, -9, 35, -55, 217, };
const TfArray<1, int> tensor_dimension5 = { 1, { 20 } };
const TfArray<1, float> quant5_scale = { 1, { 0.00016773048264440149, } };
const TfLiteAffineQuantization quant5 = { (TfLiteFloatArray*)&quant5_scale, (TfLiteIntArray*)&g0::quant1_zero, 0 };
const MODEL_SECTION(EI_MODEL_SECTION) ALIGN(16) int8_t tensor_data6[20*126] = { 
  19, 7, 4, 63, 46, 61, 50, -46, 16, -61, 14, 51, -101, -48, -2, 100, 47, 45, -56, -45, 111, -32, 64, 36, -69, 80, -58, -36, -45, -72, 46, 7, 47, -78, -64, 47, -76, 88, 2, -44, 32, 3, -55, -20, -68, 64, -47, 102, -45, -75, -29, -70, 57, -1, -91, 74, 105, 88, 112, 38, 33, -23, 29, -68, -14, -46, 11, 52, 76, 2, 38, -66, -43, -42, -24, -40, 86, 44, -12, 101, 31, 18, -24, 42, -3, 28, -76, -24, -73, -68, 28, -17, -61, 97, 2, -75, 75, 65, -57, -23, 9, -127, 7, 62, -8, -35, -52, 28, -47, -22, 72, 38, 19, 77, -32, 62, -54, 44, -79, 33, 32, 25, 22, 112, -102, -7, 
  -94, -6, 81, 12, -29, 17, 31, 28, 43, 89, -62, 40, 13, 18, 59, -53, 75, 49, 97, -57, -19, -12, 79, -19, 49, 46, -19, 72, -24, -72, -15, 91, 82, 94, 63, -32, -77, -9, 26, -44, -42, -51, 92, 67, 55, -28, 70, -65, 10, -1, -88, -9, 5, -34, -24, -84, -92, 78, 74, -79, -21, 69, -38, -16, -26, 2, 74, -95, 40, -16, 87, -54, 51, -7, 10, 82, -30, -56, -8, 87, -11, -96, -63, 9, 46, 10, -15, -72, 18, -22, 32, 30, 93, 23, 7, 55, -51, -100, 19, -88, 19, 94, -2, -12, -67, 40, 75, -63, -17, -19, -38, -105, 98, 27, -29, 87, 24, 21, -73, -73, 27, -92, -30, -52, 35, -29, 
  50, -25, -101, -69, 56, -64, 43, 81, 91, -9, -75, 15, -75, 53, -68, 72, 14, 68, 20, 22, 79, -79, 53, -80, 4, -28, 84, 58, -63, -71, -67, 71, 68, -88, -36, -18, -83, -10, 49, -78, 40, 60, -94, -16, 29, 0, -33, -94, 14, -13, 63, -42, -33, -22, 56, -71, 9, 19, 14, -3, 106, -50, -37, 17, -30, 31, -1, -79, -23, -22, -7, -88, 9, 107, 0, -99, -104, 54, -51, -83, 22, -78, 42, 8, 7, 19, -28, 14, -61, -18, -83, 87, 18, -51, 82, 49, 29, 48, 34, 32, -93, -66, -34, -83, 24, -32, 84, 50, -6, -35, -54, 50, 8, -74, -60, -63, 61, 83, -41, 47, -50, 59, 88, -112, 76, 84, 
  -86, 43, -65, 51, 9, 46, -21, 101, 41, -78, 80, 81, 37, 71, 38, -11, -81, -41, 46, 47, -74, 44, -69, -36, 51, 49, -81, 70, 76, 73, -51, 42, 95, -57, 48, 23, 88, -93, 12, 66, -92, 71, 4, 78, 94, -60, 13, -79, 43, 45, -56, -19, -35, -113, 25, -64, -80, -86, -28, -1, 105, 14, 83, 58, -73, -92, 49, -89, -62, -78, 58, -41, -41, -62, 39, 15, -31, 89, 26, 88, 15, 57, 67, -18, -15, -75, -7, -23, 73, -56, 25, 41, -87, -1, 64, -50, -52, -17, 78, -14, -24, 3, 94, -72, -57, 1, 9, -34, 8, 19, -83, 19, -1, 80, 13, 96, -71, -12, 58, 0, -92, 70, 0, 23, -83, 12, 
  94, 31, 38, -70, -69, -61, 96, -12, -54, 66, -19, 27, -69, -35, -50, 61, 78, 50, -32, -5, 18, 89, -29, -6, -20, 14, 63, 71, -69, -68, 67, -73, 64, -52, -4, -48, -39, -79, 29, 66, 3, 34, -75, -31, 64, -87, 46, 85, 3, 52, 45, 99, -49, 4, -23, 98, 65, 79, 96, 29, -97, -57, 116, 76, 6, 82, -18, 123, -91, -24, -80, 31, 77, 6, 25, 65, -5, -36, -47, -10, 91, -65, 51, -71, 39, -53, 32, -78, 33, -12, -16, 9, 38, 85, 47, 25, 27, -10, -69, -67, -9, -112, -2, -6, 114, -57, -91, 3, -47, 58, -50, 11, -56, 5, 49, -37, -59, -46, -26, -8, 88, 0, -50, 15, -70, 18, 
  -37, 66, 11, 4, -47, -81, 3, 88, -30, 14, -97, -42, -87, 37, 8, -10, -98, 36, -35, 18, -86, -80, -2, -56, 64, -33, 34, -21, -55, 87, -29, -2, 70, -51, 12, -101, 74, -64, 34, 77, 74, 30, -74, -31, 10, -83, -66, -67, -15, 69, 101, -28, 23, -53, 48, 50, 27, -19, 46, 24, 25, -91, 46, -66, -17, -18, -52, 60, 94, 39, 85, -51, 57, -53, -97, -62, -28, -11, 71, -17, -89, 19, -37, 72, -15, -79, 21, -4, 103, -21, 6, 4, -65, 66, 4, -17, -19, 23, -7, 51, -23, 41, 76, -54, 6, 7, 87, -79, 24, 39, -22, -18, 24, 48, 58, 32, 45, -72, 11, -69, -102, 40, -79, 0, -9, 80, 
  67, -9, -16, -73, -74, -78, -13, 88, -54, 27, 15, 12, -18, 74, 58, 5, -17, -70, 78, 91, -25, 15, -63, 82, -23, 10, 83, -67, 99, 45, 87, -111, -16, 4, -55, 45, -107, 60, -64, 117, -25, 34, 10, 22, -30, -97, 81, -41, 9, -25, -69, 96, -73, 76, 44, -3, 25, 100, 73, -56, -75, 24, 90, -52, 59, 49, -67, 85, -71, -40, 33, 105, -9, 22, 14, 72, 67, 82, 54, -19, 89, 83, 5, 39, -37, -12, 78, 9, -61, -24, -53, 60, -29, 107, -17, -76, -38, -52, -69, 11, -36, -76, -12, -12, 114, -19, -9, -44, -37, 17, 21, 65, 81, -76, 46, -42, 38, -23, -61, -35, -47, 42, -71, 22, -11, -71, 
  70, -94, 33, 85, 69, 33, 24, 35, -28, 79, -23, 91, -31, 34, -69, -98, -39, -44, -86, 114, 65, -77, -50, -7, -28, 88, -27, 25, -99, -19, 14, 96, 0, -63, -50, -108, -15, 22, 62, -38, -17, 26, 94, 94, 29, -6, 12, -69, -64, 59, -51, -37, -14, 4, -31, -61, -79, 65, 54, -78, -80, -16, 30, -66, 56, 5, 7, -61, -42, 99, -55, 15, -28, 59, -16, 32, -54, 55, -46, 25, 83, -118, 61, -1, 25, -86, 42, 36, 58, -26, -16, -92, 3, -54, -69, -41, -51, -87, 10, 85, -36, 62, -19, -73, -23, -54, -50, -98, 89, -48, -70, -91, 22, 40, 77, -30, 59, -4, -47, 18, -37, 13, -11, -94, 21, 25, 
  46, 86, 51, -10, -76, 53, -19, -62, -1, -23, -1, 52, 62, -40, 9, -49, 33, -37, 104, 12, 80, 68, 93, 31, 51, 54, 76, -15, 73, -92, 47, -84, -7, -10, -88, -22, -79, 74, -72, 1, -42, -56, -95, -44, -92, 36, -26, -20, -59, 29, -84, -103, 89, -69, 54, 58, 6, 39, -16, -28, 70, -30, 74, -46, 0, -100, 76, 62, 56, -37, -48, -36, 10, -70, -22, -95, -78, -51, -59, 74, -52, -64, -79, -32, 75, 14, -11, 42, 63, 46, -7, -80, -89, -29, 67, -14, 80, 30, 36, -61, -75, -51, -37, 36, 3, 69, -30, 4, 20, -16, -48, 68, 10, 37, 68, 97, 39, -68, 73, -27, 63, 70, 4, -36, 47, -85, 
  -73, 56, -78, -16, -46, 67, -79, 9, -63, -88, -73, -57, -108, -15, -54, 86, -6, 45, 65, -63, -11, 56, 9, 101, 107, 76, -5, 39, 5, 54, -39, -39, -72, -2, 77, 30, 56, 84, -9, 24, 12, 51, -40, 34, -32, -101, 67, 56, 76, -66, 38, 89, -95, -95, -74, 22, 68, 20, -77, 41, -80, -57, -77, 67, -6, -34, -107, -39, -78, 49, -48, 75, 97, 14, -12, -79, 79, -30, -103, 55, 38, 82, -94, -46, -59, 83, -60, -65, 36, 19, 83, 33, -44, -5, 12, 95, -10, -85, -64, -34, 68, -76, -84, -33, 5, 3, -115, -48, 31, 32, 30, -44, -30, -33, 90, 64, 75, 56, 56, 54, 63, -99, -49, 79, -71, 54, 
  103, 31, 48, -106, -71, -29, 64, 28, -18, 45, -61, 42, 13, -63, 56, -44, 5, -11, 34, 22, -81, 42, -102, 88, 90, -5, -60, -18, 79, 78, -87, -89, -77, -20, 100, 82, -40, -64, -69, 39, 24, 1, 18, -19, -23, 66, 3, -90, 64, 27, -23, -57, -17, -3, 82, 96, -50, -29, 33, -12, 22, 35, 61, 70, 33, -97, -91, 40, 59, 39, 89, 23, -10, -33, -4, 88, 26, -58, 52, 94, -42, -69, 44, -54, -29, 78, -21, 16, -38, -50, 2, 84, 38, -47, -14, 10, -60, 44, -73, 58, 93, 60, 43, 44, 44, -45, -1, -89, 72, 6, -36, 12, 46, 59, -82, 14, -32, 86, -38, -57, -50, -83, -59, -74, 68, 57, 
  -6, 42, 102, -28, -93, -70, 109, -39, 73, -21, 87, 91, 66, 83, -32, 40, -36, -36, 68, 23, -18, -25, 94, 5, 36, 40, 65, 43, 102, 34, -4, -21, -16, -20, 29, -35, -67, 26, 31, 53, 46, 65, 88, -10, -49, -48, 1, 66, -70, -13, -75, 81, 48, 49, 94, 48, 56, -21, 6, -77, 51, 74, -2, -12, 83, 52, 61, -30, -8, -27, -68, 0, -59, -52, 56, 49, 42, 88, 56, 10, 42, 82, -68, -56, -88, -83, -61, 26, -31, 81, 68, -87, -96, -58, 36, 43, 38, 55, -9, -30, -17, -13, 52, 89, 65, 32, 13, 94, 5, -83, -34, 9, 47, 27, -93, -66, -111, 28, 64, 29, 99, 86, 9, -20, -22, -37, 
  -45, -96, -9, -37, 80, -94, -63, -88, -85, 51, -20, -86, 16, 61, -31, 80, 15, -37, 99, -46, 50, 67, -66, 65, 51, -27, 0, -39, 84, -18, -39, 18, -76, 67, 65, 81, 73, -60, -80, -56, -19, 23, -76, -50, -97, -36, 109, 33, -15, 95, 52, -86, -115, 18, -70, -86, -68, 36, -11, 30, -11, -92, -63, 51, 1, 39, 76, 52, -5, 73, -2, -40, 51, 47, 47, -117, -27, 67, -97, -69, 25, 57, 68, 68, 92, 74, -86, -42, 19, 45, -84, 97, 23, 9, -82, -95, 41, 21, 60, -14, -57, 55, 66, 12, 2, -73, -5, 86, 49, 24, 10, -19, 0, -40, -56, 9, -27, -51, 91, 59, 57, -1, 34, -44, 48, 52, 
  38, -84, -35, -12, 76, 109, -65, 99, -20, 31, 28, 34, 83, 27, -3, -65, -80, -30, -98, -18, -55, -77, -12, -21, -27, -86, -63, 79, 0, 11, 48, -107, -91, -75, 6, 17, 37, 4, 91, -19, 93, 43, 90, -64, 91, -64, -17, 66, 114, 54, 18, 63, -61, -29, 83, -42, 23, 68, 56, -41, -14, -20, 6, -70, 64, 99, 100, 101, 10, 85, -74, -17, 69, -43, 32, -57, -30, -41, 46, -32, -20, 68, -39, -42, 61, 18, 80, 70, -22, -79, 21, 18, -56, 69, -80, -54, -36, 96, 6, -45, 25, 65, 8, -57, -37, 38, 6, 11, -10, 62, 74, -83, -55, 33, -55, 32, 37, -41, 77, -87, 1, -15, -33, -11, 101, 21, 
  106, -66, -33, 13, -7, -41, -24, 40, 40, 41, 105, -88, -84, 92, -77, -36, -65, -5, 36, -59, 103, 91, -56, 84, -75, -45, -7, -88, 95, -25, 119, -69, -63, 77, 7, -77, -84, 35, 92, -77, -90, 71, -82, 71, -3, 40, -52, -49, -73, -48, -33, 64, 45, 4, -77, -70, 95, -24, 93, -82, -11, 56, -33, 96, 17, 115, 108, 88, -24, 42, 18, -59, 96, -68, 67, 62, -15, 31, 0, 36, 72, 39, -74, -56, 25, -77, 81, -9, -99, 38, -27, 27, -4, 75, -68, 17, 81, 79, 82, 100, -85, 67, -81, 88, -57, -38, 64, -62, -20, -33, -30, 3, 97, 54, -83, 36, 77, -66, 97, 79, -46, 11, 0, -34, -53, -73, 
  -17, 66, -90, -86, -75, 10, -29, 9, 39, 21, -19, 26, -62, 57, 29, 81, -3, 59, 51, 41, -106, 85, -73, 29, 10, -13, -57, -21, -36, -49, 7, -19, -18, 34, -25, 33, 6, -103, 13, 73, 42, -31, 15, -81, 54, -46, -74, -37, -87, 69, 48, -23, 57, 68, 42, -42, 73, 49, -79, 100, 19, -76, 0, -51, 7, 19, -2, -78, 12, 77, -96, 86, 70, 104, 56, 54, -59, 15, 74, 16, -84, -78, 17, 107, 87, 72, -1, 67, 71, 80, -18, 101, 14, 45, 79, 51, -89, 59, 42, 50, 76, 102, 110, -46, 47, -54, 16, 20, 81, -74, 22, -69, -105, 22, 58, -43, -16, -101, -22, -5, -51, 1, -23, -54, 28, -8, 
  8, -56, -27, -6, 69, -15, -22, -70, 36, -85, -83, -30, 26, 42, -28, 32, -69, -58, 28, -17, -68, -61, 37, -38, 49, -28, -10, 67, -61, 67, 45, -7, 61, -44, -16, -61, 29, -80, -37, 7, 7, -24, 15, 68, -8, -86, 73, -86, -2, -33, -2, -4, -16, -63, -22, -95, -17, -23, 60, -83, -69, 90, -45, 5, -70, 61, 13, -20, -11, 87, -82, -22, -54, 67, 67, 57, -34, 26, -59, 36, 28, 103, -107, -39, -7, 65, 9, -67, 87, -13, 14, 96, 92, 24, 22, -39, 2, -25, 83, -48, -15, -23, -25, -6, 96, 68, 38, 103, -9, -45, 57, 27, 65, -93, -90, 23, -36, 93, -45, -83, 40, -2, -56, 1, 93, 19, 
  -9, 58, 103, 67, 47, -13, -26, 83, 32, -8, -29, 99, -32, 65, -63, -34, -61, 22, 64, -26, 57, -44, -74, 100, -47, -71, -48, 29, 0, -57, -5, -77, -22, 50, 13, 81, 90, -48, 74, -77, -91, -31, 103, -23, 33, -85, -17, 118, -59, 43, -57, -39, 114, 69, 25, -78, 81, -86, -24, -49, 1, -48, 50, 108, -7, 50, -10, 1, 40, -28, 83, -37, 59, 90, 18, 51, -76, -63, 84, -76, -77, -90, -77, 15, 56, 97, -34, 4, -2, 64, 20, 81, -79, -34, 90, 66, 39, -40, 96, -90, 83, 31, -20, -32, -49, -104, -69, 94, 33, -94, -97, -53, 84, 3, -67, 24, 40, 122, -43, -20, -51, 91, 28, 88, -7, 33, 
  -90, -33, 41, -91, 44, 3, -73, -14, 2, -39, -95, -42, -80, -72, -81, -54, -4, -49, -41, 26, -61, 88, -49, 70, -51, -91, -4, -28, -96, -71, 34, -34, -49, -98, 83, 82, 31, -72, -82, -39, -71, 19, -62, 52, 0, 4, 110, 0, -88, -89, 30, -102, 26, -74, 75, -72, -64, -64, -30, 91, -20, -64, -84, 82, 58, -72, 68, -100, 22, 83, 60, 50, 70, -24, -82, 17, 69, 22, -19, 12, 14, 20, 103, -3, 43, 12, 73, 10, 8, -88, -94, 79, 57, -41, -80, -80, 54, 13, 90, -63, -105, 111, 36, -3, -66, 1, -47, -86, -8, 38, -74, 4, -97, -56, -62, -59, 56, 29, -101, -88, 87, -70, -32, 1, 19, 88, 
  19, 95, 28, -65, -36, -11, 51, 1, 54, 85, -60, 96, 59, 1, 21, -29, 22, -103, -73, 47, -16, -90, 59, -57, 9, 22, -67, -41, 57, 88, -43, -6, 61, -40, 29, 26, -106, 41, 19, 7, -68, -68, 47, 75, 21, -96, -109, 44, 11, -5, 13, 64, -66, 52, 50, -60, 72, -73, -47, 62, -97, 85, -51, 45, -60, 9, 2, -46, -65, -65, -72, 74, -10, -33, -41, 53, -61, -86, -72, -23, 89, 13, 3, -91, 1, 50, 105, -32, 5, 22, -68, 10, -58, 1, 49, -58, -57, -76, 118, -47, -18, 52, 46, -55, 4, 64, -86, -47, 6, 79, 92, 66, -61, -48, 56, -9, -29, -36, -23, -3, 102, 34, 47, -28, 23, 56, 
};
const TfArray<2, int> tensor_dimension6 = { 2, { 20,126 } };
const TfArray<1, float> quant6_scale = { 1, { 0.0020687256474047899, } };
const TfLiteAffineQuantization quant6 = { (TfLiteFloatArray*)&quant6_scale, (TfLiteIntArray*)&g0::quant1_zero, 0 };
const TfArray<2, int> tensor_dimension7 = { 2, { 1,20 } };
const TfArray<1, float> quant7_scale = { 1, { 0.025277910754084587, } };
const TfArray<1, int> quant7_zero = { 1, { -128 } };
const TfLiteAffineQuantization quant7 = { (TfLiteFloatArray*)&quant7_scale, (TfLiteIntArray*)&quant7_zero, 0 };
const TfArray<2, int> tensor_dimension8 = { 2, { 1,10 } };
const TfArray<1, float> quant8_scale = { 1, { 0.018905166536569595, } };
const TfLiteAffineQuantization quant8 = { (TfLiteFloatArray*)&quant8_scale, (TfLiteIntArray*)&g0::quant7_zero, 0 };
const TfArray<2, int> tensor_dimension9 = { 2, { 1,3 } };
const TfArray<1, float> quant9_scale = { 1, { 0.030491849407553673, } };
const TfArray<1, int> quant9_zero = { 1, { 72 } };
const TfLiteAffineQuantization quant9 = { (TfLiteFloatArray*)&quant9_scale, (TfLiteIntArray*)&quant9_zero, 0 };
const TfArray<1, float> quant10_scale = { 1, { 0.00390625, } };
const TfLiteAffineQuantization quant10 = { (TfLiteFloatArray*)&quant10_scale, (TfLiteIntArray*)&g0::quant7_zero, 0 };
const TfLiteFullyConnectedParams opdata0 = { kTfLiteActRelu, kTfLiteFullyConnectedWeightsFormatDefault, false, false };
const TfArray<3, int> inputs0 = { 3, { 0,6,5 } };
const TfArray<1, int> outputs0 = { 1, { 7 } };
const TfLiteFullyConnectedParams opdata1 = { kTfLiteActRelu, kTfLiteFullyConnectedWeightsFormatDefault, false, false };
const TfArray<3, int> inputs1 = { 3, { 7,4,3 } };
const TfArray<1, int> outputs1 = { 1, { 8 } };
const TfLiteFullyConnectedParams opdata2 = { kTfLiteActNone, kTfLiteFullyConnectedWeightsFormatDefault, false, false };
const TfArray<3, int> inputs2 = { 3, { 8,2,1 } };
const TfArray<1, int> outputs2 = { 1, { 9 } };
const TfLiteSoftmaxParams opdata3 = { 1 };
const TfArray<1, int> inputs3 = { 1, { 9 } };
const TfArray<1, int> outputs3 = { 1, { 10 } };
};

TensorInfo_t tensorData[] = {
{ kTfLiteArenaRw, kTfLiteInt8, (int32_t*)(tensor_arena + 0), (TfLiteIntArray*)&g0::tensor_dimension0, 126, {kTfLiteAffineQuantization, const_cast<void*>(static_cast<const void*>(&g0::quant0))}, },
{ kTfLiteMmapRo, kTfLiteInt32, (int32_t*)g0::tensor_data1, (TfLiteIntArray*)&g0::tensor_dimension1, 12, {kTfLiteAffineQuantization, const_cast<void*>(static_cast<const void*>(&g0::quant1))}, },
{ kTfLiteMmapRo, kTfLiteInt8, (int32_t*)g0::tensor_data2, (TfLiteIntArray*)&g0::tensor_dimension2, 30, {kTfLiteAffineQuantization, const_cast<void*>(static_cast<const void*>(&g0::quant2))}, },
{ kTfLiteMmapRo, kTfLiteInt32, (int32_t*)g0::tensor_data3, (TfLiteIntArray*)&g0::tensor_dimension3, 40, {kTfLiteAffineQuantization, const_cast<void*>(static_cast<const void*>(&g0::quant3))}, },
{ kTfLiteMmapRo, kTfLiteInt8, (int32_t*)g0::tensor_data4, (TfLiteIntArray*)&g0::tensor_dimension4, 200, {kTfLiteAffineQuantization, const_cast<void*>(static_cast<const void*>(&g0::quant4))}, },
{ kTfLiteMmapRo, kTfLiteInt32, (int32_t*)g0::tensor_data5, (TfLiteIntArray*)&g0::tensor_dimension5, 80, {kTfLiteAffineQuantization, const_cast<void*>(static_cast<const void*>(&g0::quant5))}, },
{ kTfLiteMmapRo, kTfLiteInt8, (int32_t*)g0::tensor_data6, (TfLiteIntArray*)&g0::tensor_dimension6, 2520, {kTfLiteAffineQuantization, const_cast<void*>(static_cast<const void*>(&g0::quant6))}, },
{ kTfLiteArenaRw, kTfLiteInt8, (int32_t*)(tensor_arena + 128), (TfLiteIntArray*)&g0::tensor_dimension7, 20, {kTfLiteAffineQuantization, const_cast<void*>(static_cast<const void*>(&g0::quant7))}, },
{ kTfLiteArenaRw, kTfLiteInt8, (int32_t*)(tensor_arena + 0), (TfLiteIntArray*)&g0::tensor_dimension8, 10, {kTfLiteAffineQuantization, const_cast<void*>(static_cast<const void*>(&g0::quant8))}, },
{ kTfLiteArenaRw, kTfLiteInt8, (int32_t*)(tensor_arena + 16), (TfLiteIntArray*)&g0::tensor_dimension9, 3, {kTfLiteAffineQuantization, const_cast<void*>(static_cast<const void*>(&g0::quant9))}, },
{ kTfLiteArenaRw, kTfLiteInt8, (int32_t*)(tensor_arena + 0), (TfLiteIntArray*)&g0::tensor_dimension9, 3, {kTfLiteAffineQuantization, const_cast<void*>(static_cast<const void*>(&g0::quant10))}, },
};

#ifndef TF_LITE_STATIC_MEMORY
TfLiteNode tflNodes[4] = {
{ (TfLiteIntArray*)&g0::inputs0, (TfLiteIntArray*)&g0::outputs0, (TfLiteIntArray*)&g0::inputs0, nullptr, nullptr, const_cast<void*>(static_cast<const void*>(&g0::opdata0)), nullptr, 0, },
{ (TfLiteIntArray*)&g0::inputs1, (TfLiteIntArray*)&g0::outputs1, (TfLiteIntArray*)&g0::inputs1, nullptr, nullptr, const_cast<void*>(static_cast<const void*>(&g0::opdata1)), nullptr, 0, },
{ (TfLiteIntArray*)&g0::inputs2, (TfLiteIntArray*)&g0::outputs2, (TfLiteIntArray*)&g0::inputs2, nullptr, nullptr, const_cast<void*>(static_cast<const void*>(&g0::opdata2)), nullptr, 0, },
{ (TfLiteIntArray*)&g0::inputs3, (TfLiteIntArray*)&g0::outputs3, (TfLiteIntArray*)&g0::inputs3, nullptr, nullptr, const_cast<void*>(static_cast<const void*>(&g0::opdata3)), nullptr, 0, },
};
#else
TfLiteNode tflNodes[4] = {
{ (TfLiteIntArray*)&g0::inputs0, (TfLiteIntArray*)&g0::outputs0, (TfLiteIntArray*)&g0::inputs0, nullptr, const_cast<void*>(static_cast<const void*>(&g0::opdata0)), nullptr, 0, },
{ (TfLiteIntArray*)&g0::inputs1, (TfLiteIntArray*)&g0::outputs1, (TfLiteIntArray*)&g0::inputs1, nullptr, const_cast<void*>(static_cast<const void*>(&g0::opdata1)), nullptr, 0, },
{ (TfLiteIntArray*)&g0::inputs2, (TfLiteIntArray*)&g0::outputs2, (TfLiteIntArray*)&g0::inputs2, nullptr, const_cast<void*>(static_cast<const void*>(&g0::opdata2)), nullptr, 0, },
{ (TfLiteIntArray*)&g0::inputs3, (TfLiteIntArray*)&g0::outputs3, (TfLiteIntArray*)&g0::inputs3, nullptr, const_cast<void*>(static_cast<const void*>(&g0::opdata3)), nullptr, 0, },
};
#endif

used_operators_e used_ops[] =
{OP_FULLY_CONNECTED, OP_FULLY_CONNECTED, OP_FULLY_CONNECTED, OP_SOFTMAX, };


// Indices into tflTensors and tflNodes for subgraphs
const size_t tflTensors_subgraph_index[] = {0, 11, };
const size_t tflNodes_subgraph_index[] = {0, 4, };

// Input/output tensors
static const int in_tensor_indices[] = {
  0, 
};

static const int out_tensor_indices[] = {
  10, 
};


size_t current_subgraph_index = 0;

static void init_tflite_tensor(size_t i, TfLiteTensor *tensor) {
  tensor->type = tensorData[i].type;
  tensor->is_variable = false;

#if defined(EI_CLASSIFIER_ALLOCATION_HEAP)
  tensor->allocation_type = tensorData[i].allocation_type;
#else
  tensor->allocation_type = (tensor_arena <= tensorData[i].data && tensorData[i].data < tensor_arena + kTensorArenaSize) ? kTfLiteArenaRw : kTfLiteMmapRo;
#endif
  tensor->bytes = tensorData[i].bytes;
  tensor->dims = tensorData[i].dims;

#if defined(EI_CLASSIFIER_ALLOCATION_HEAP)
  if(tensor->allocation_type == kTfLiteArenaRw){
    uint8_t* start = (uint8_t*) ((uintptr_t)tensorData[i].data + (uintptr_t) tensor_arena);

    tensor->data.data =  start;
  }
  else {
      tensor->data.data = tensorData[i].data;
  }
#else
  tensor->data.data = tensorData[i].data;
#endif // EI_CLASSIFIER_ALLOCATION_HEAP
  tensor->quantization = tensorData[i].quantization;
  if (tensor->quantization.type == kTfLiteAffineQuantization) {
    TfLiteAffineQuantization const* quant = ((TfLiteAffineQuantization const*)(tensorData[i].quantization.params));
    tensor->params.scale = quant->scale->data[0];
    tensor->params.zero_point = quant->zero_point->data[0];
  }

}

static void init_tflite_eval_tensor(int i, TfLiteEvalTensor *tensor) {

  tensor->type = tensorData[i].type;

  tensor->dims = tensorData[i].dims;

#if defined(EI_CLASSIFIER_ALLOCATION_HEAP)
  auto allocation_type = tensorData[i].allocation_type;
  if(allocation_type == kTfLiteArenaRw) {
    uint8_t* start = (uint8_t*) ((uintptr_t)tensorData[i].data + (uintptr_t) tensor_arena);

    tensor->data.data =  start;
  }
  else {
    tensor->data.data = tensorData[i].data;
  }
#else
  tensor->data.data = tensorData[i].data;
#endif // EI_CLASSIFIER_ALLOCATION_HEAP
}

static void* overflow_buffers[EI_MAX_OVERFLOW_BUFFER_COUNT];
static size_t overflow_buffers_ix = 0;
static void * AllocatePersistentBufferImpl(struct TfLiteContext* ctx,
                                       size_t bytes) {
  void *ptr;
  uint32_t align_bytes = (bytes % 16) ? 16 - (bytes % 16) : 0;

  if (current_location - (bytes + align_bytes) < tensor_boundary) {
    if (overflow_buffers_ix > EI_MAX_OVERFLOW_BUFFER_COUNT - 1) {
      ei_printf("ERR: Failed to allocate persistent buffer of size %d, does not fit in tensor arena and reached EI_MAX_OVERFLOW_BUFFER_COUNT\n",
        (int)bytes);
      return NULL;
    }

    // OK, this will look super weird, but.... we have CMSIS-NN buffers which
    // we cannot calculate beforehand easily.
    ptr = ei_calloc(bytes, 1);
    if (ptr == NULL) {
      ei_printf("ERR: Failed to allocate persistent buffer of size %d\n", (int)bytes);
      return NULL;
    }
    overflow_buffers[overflow_buffers_ix++] = ptr;
    return ptr;
  }

  current_location -= bytes;

  // align to the left aligned boundary of 16 bytes
  current_location -= 15; // for alignment
  current_location += 16 - ((uintptr_t)(current_location) & 15);

  ptr = current_location;
  memset(ptr, 0, bytes);

  return ptr;
}

typedef struct {
  size_t bytes;
  void *ptr;
} scratch_buffer_t;

static scratch_buffer_t scratch_buffers[EI_MAX_SCRATCH_BUFFER_COUNT];
static size_t scratch_buffers_ix = 0;

static TfLiteStatus RequestScratchBufferInArenaImpl(struct TfLiteContext* ctx, size_t bytes,
                                                int* buffer_idx) {
  if (scratch_buffers_ix > EI_MAX_SCRATCH_BUFFER_COUNT - 1) {
    ei_printf("ERR: Failed to allocate scratch buffer of size %d, reached EI_MAX_SCRATCH_BUFFER_COUNT\n",
      (int)bytes);
    return kTfLiteError;
  }

  scratch_buffer_t b;
  b.bytes = bytes;

  b.ptr = AllocatePersistentBufferImpl(ctx, b.bytes);
  if (!b.ptr) {
    ei_printf("ERR: Failed to allocate scratch buffer of size %d\n",
      (int)bytes);
    return kTfLiteError;
  }

  scratch_buffers[scratch_buffers_ix] = b;
  *buffer_idx = scratch_buffers_ix;

  scratch_buffers_ix++;

  return kTfLiteOk;
}

static void* GetScratchBufferImpl(struct TfLiteContext* ctx, int buffer_idx) {
  if (buffer_idx > (int)scratch_buffers_ix) {
    return NULL;
  }
  return scratch_buffers[buffer_idx].ptr;
}

static const uint16_t TENSOR_IX_UNUSED = 0x7FFF;

static void ResetTensors() {
  for (size_t ix = 0; ix < MAX_TFL_TENSOR_COUNT; ix++) {
    tflTensors[ix].index = TENSOR_IX_UNUSED;
  }
  for (size_t ix = 0; ix < MAX_TFL_EVAL_COUNT; ix++) {
    tflEvalTensors[ix].index = TENSOR_IX_UNUSED;
  }
}

static TfLiteTensor* GetTensorImpl(const struct TfLiteContext* context,
                               int tensor_idx) {

  tensor_idx = tflTensors_subgraph_index[current_subgraph_index] + tensor_idx;

  for (size_t ix = 0; ix < MAX_TFL_TENSOR_COUNT; ix++) {
    // already used? OK!
    if (tflTensors[ix].index == tensor_idx) {
      return &tflTensors[ix].tensor;
    }
    // passed all the ones we've used, so end of the list?
    if (tflTensors[ix].index == TENSOR_IX_UNUSED) {
      // init the tensor
      init_tflite_tensor(tensor_idx, &tflTensors[ix].tensor);
      tflTensors[ix].index = tensor_idx;
      return &tflTensors[ix].tensor;
    }
  }

  ei_printf("ERR: GetTensor called beyond MAX_TFL_TENSOR_COUNT (%d)\n", MAX_TFL_TENSOR_COUNT);
  return nullptr;
}

static TfLiteEvalTensor* GetEvalTensorImpl(const struct TfLiteContext* context,
                                       int tensor_idx) {

  tensor_idx = tflTensors_subgraph_index[current_subgraph_index] + tensor_idx;

  for (size_t ix = 0; ix < MAX_TFL_EVAL_COUNT; ix++) {
    // already used? OK!
    if (tflEvalTensors[ix].index == tensor_idx) {
      return &tflEvalTensors[ix].tensor;
    }
    // passed all the ones we've used, so end of the list?
    if (tflEvalTensors[ix].index == TENSOR_IX_UNUSED) {
      // init the tensor
      init_tflite_eval_tensor(tensor_idx, &tflEvalTensors[ix].tensor);
      tflEvalTensors[ix].index = tensor_idx;
      return &tflEvalTensors[ix].tensor;
    }
  }

  ei_printf("ERR: GetTensor called beyond MAX_TFL_EVAL_COUNT (%d)\n", (int)MAX_TFL_EVAL_COUNT);
  return nullptr;
}

class EonMicroContext : public MicroContext {
 public:
 
  EonMicroContext(): MicroContext(nullptr, nullptr, nullptr) { }

  void* AllocatePersistentBuffer(size_t bytes) {
    return AllocatePersistentBufferImpl(nullptr, bytes);
  }

  TfLiteStatus RequestScratchBufferInArena(size_t bytes,
                                           int* buffer_index) {
  return RequestScratchBufferInArenaImpl(nullptr, bytes, buffer_index);
  }

  void* GetScratchBuffer(int buffer_index) {
    return GetScratchBufferImpl(nullptr, buffer_index);
  }
 
  TfLiteTensor* AllocateTempTfLiteTensor(int tensor_index) {
    return GetTensorImpl(nullptr, tensor_index);
  }

  void DeallocateTempTfLiteTensor(TfLiteTensor* tensor) {
    return;
  }

  bool IsAllTempTfLiteTensorDeallocated() {
    return true;
  }

  TfLiteEvalTensor* GetEvalTensor(int tensor_index) {
    return GetEvalTensorImpl(nullptr, tensor_index);
  }

};


} // namespace

TfLiteStatus tflite_learn_840785_5_init( void*(*alloc_fnc)(size_t,size_t) ) {
#ifdef EI_CLASSIFIER_ALLOCATION_HEAP
  tensor_arena = (uint8_t*) alloc_fnc(16, kTensorArenaSize);
  if (!tensor_arena) {
    ei_printf("ERR: failed to allocate tensor arena\n");
    return kTfLiteError;
  }
#else
  memset(tensor_arena, 0, kTensorArenaSize);
#endif
  tensor_boundary = tensor_arena;
  current_location = tensor_arena + kTensorArenaSize;

  EonMicroContext micro_context_;
  
  // Set microcontext as the context ptr
  ctx.impl_ = static_cast<void*>(&micro_context_);
  // Setup tflitecontext functions
  ctx.AllocatePersistentBuffer = &AllocatePersistentBufferImpl;
  ctx.RequestScratchBufferInArena = &RequestScratchBufferInArenaImpl;
  ctx.GetScratchBuffer = &GetScratchBufferImpl;
  ctx.GetTensor = &GetTensorImpl;
  ctx.GetEvalTensor = &GetEvalTensorImpl;
  ctx.ReportError = &MicroContextReportOpError;

  ctx.tensors_size = 11;
  for (size_t i = 0; i < 11; ++i) {
    TfLiteTensor tensor;
    init_tflite_tensor(i, &tensor);
    if (tensor.allocation_type == kTfLiteArenaRw) {
      auto data_end_ptr = (uint8_t*)tensor.data.data + tensorData[i].bytes;
      if (data_end_ptr > tensor_boundary) {
        tensor_boundary = data_end_ptr;
      }
    }
  }

  if (tensor_boundary > current_location /* end of arena size */) {
    ei_printf("ERR: tensor arena is too small, does not fit model - even without scratch buffers\n");
    return kTfLiteError;
  }

  registrations[OP_FULLY_CONNECTED] = Register_FULLY_CONNECTED();
  registrations[OP_SOFTMAX] = Register_SOFTMAX();

  for (size_t g = 0; g < 1; ++g) {
    current_subgraph_index = g;
    for(size_t i = tflNodes_subgraph_index[g]; i < tflNodes_subgraph_index[g+1]; ++i) {
      if (registrations[used_ops[i]].init) {
        tflNodes[i].user_data = registrations[used_ops[i]].init(&ctx, (const char*)tflNodes[i].builtin_data, 0);
      }
    }
  }
  current_subgraph_index = 0;

  for(size_t g = 0; g < 1; ++g) {
    current_subgraph_index = g;
    for(size_t i = tflNodes_subgraph_index[g]; i < tflNodes_subgraph_index[g+1]; ++i) {
      if (registrations[used_ops[i]].prepare) {
        ResetTensors();
        TfLiteStatus status = registrations[used_ops[i]].prepare(&ctx, &tflNodes[i]);
        if (status != kTfLiteOk) {
          return status;
        }
      }
    }
  }
  current_subgraph_index = 0;

  return kTfLiteOk;
}

TfLiteStatus tflite_learn_840785_5_input(int index, TfLiteTensor *tensor) {
  init_tflite_tensor(in_tensor_indices[index], tensor);
  return kTfLiteOk;
}

TfLiteStatus tflite_learn_840785_5_output(int index, TfLiteTensor *tensor) {
  init_tflite_tensor(out_tensor_indices[index], tensor);
  return kTfLiteOk;
}

TfLiteStatus tflite_learn_840785_5_invoke() {
  for (size_t i = 0; i < 4; ++i) {
    ResetTensors();

    TfLiteStatus status = registrations[used_ops[i]].invoke(&ctx, &tflNodes[i]);

#if EI_CLASSIFIER_PRINT_STATE
    ei_printf("layer %lu\n", i);
    ei_printf("    inputs:\n");
    for (size_t ix = 0; ix < tflNodes[i].inputs->size; ix++) {
      auto d = tensorData[tflNodes[i].inputs->data[ix]];

      size_t data_ptr = (size_t)d.data;

      if (d.allocation_type == kTfLiteArenaRw) {
        data_ptr = (size_t)tensor_arena + data_ptr;
      }

      if (d.type == TfLiteType::kTfLiteInt8) {
        int8_t* data = (int8_t*)data_ptr;
        ei_printf("        %lu (%zu bytes, ptr=%p, alloc_type=%d, type=%d): ", ix, d.bytes, data, (int)d.allocation_type, (int)d.type);
        for (size_t jx = 0; jx < d.bytes; jx++) {
          ei_printf("%d ", data[jx]);
        }
      }
      else {
        float* data = (float*)data_ptr;
        ei_printf("        %lu (%zu bytes, ptr=%p, alloc_type=%d, type=%d): ", ix, d.bytes, data, (int)d.allocation_type, (int)d.type);
        for (size_t jx = 0; jx < d.bytes / 4; jx++) {
          ei_printf("%f ", data[jx]);
        }
      }
      ei_printf("\n");
    }
    ei_printf("\n");

    ei_printf("    outputs:\n");
    for (size_t ix = 0; ix < tflNodes[i].outputs->size; ix++) {
      auto d = tensorData[tflNodes[i].outputs->data[ix]];

      size_t data_ptr = (size_t)d.data;

      if (d.allocation_type == kTfLiteArenaRw) {
        data_ptr = (size_t)tensor_arena + data_ptr;
      }

      if (d.type == TfLiteType::kTfLiteInt8) {
        int8_t* data = (int8_t*)data_ptr;
        ei_printf("        %lu (%zu bytes, ptr=%p, alloc_type=%d, type=%d): ", ix, d.bytes, data, (int)d.allocation_type, (int)d.type);
        for (size_t jx = 0; jx < d.bytes; jx++) {
          ei_printf("%d ", data[jx]);
        }
      }
      else {
        float* data = (float*)data_ptr;
        ei_printf("        %lu (%zu bytes, ptr=%p, alloc_type=%d, type=%d): ", ix, d.bytes, data, (int)d.allocation_type, (int)d.type);
        for (size_t jx = 0; jx < d.bytes / 4; jx++) {
          ei_printf("%f ", data[jx]);
        }
      }
      ei_printf("\n");
    }
    ei_printf("\n");
#endif // EI_CLASSIFIER_PRINT_STATE

    if (status != kTfLiteOk) {
      return status;
    }
  }
  return kTfLiteOk;
}

TfLiteStatus tflite_learn_840785_5_reset( void (*free_fnc)(void* ptr) ) {
#ifdef EI_CLASSIFIER_ALLOCATION_HEAP
  free_fnc(tensor_arena);
#endif

  // scratch buffers are allocated within the arena, so just reset the counter so memory can be reused
  scratch_buffers_ix = 0;

  // overflow buffers are on the heap, so free them first
  for (size_t ix = 0; ix < overflow_buffers_ix; ix++) {
    ei_free(overflow_buffers[ix]);
  }
  overflow_buffers_ix = 0;
  return kTfLiteOk;
}
